<?xml version="1.0"?>
<opencv_storage>
<cascade>
  <stageType>BOOST</stageType>
  <featureType>LBP</featureType>
  <height>40</height>
  <width>80</width>
  <stageParams>
    <boostType>GAB</boostType>
    <minHitRate>9.9900001287460327e-01</minHitRate>
    <maxFalseAlarm>5.0000000000000000e-01</maxFalseAlarm>
    <weightTrimRate>9.4999999999999996e-01</weightTrimRate>
    <maxDepth>1</maxDepth>
    <maxWeakCount>100</maxWeakCount></stageParams>
  <featureParams>
    <maxCatCount>256</maxCatCount>
    <featSize>1</featSize></featureParams>
  <stageNum>20</stageNum>
  <stages>
    <!-- stage 0 -->
    <_>
      <maxWeakCount>5</maxWeakCount>
      <stageThreshold>-1.2210271358489990e+00</stageThreshold>
      <weakClassifiers>
        <_>
          <internalNodes>
            0 -1 35 -742201656 -178203050 -2013084862 -69812224
            -125715710 -73744256 -1828712448 -9281456</internalNodes>
          <leafValues>
            -8.9731049537658691e-01 6.4399665594100952e-01</leafValues></_>
        <_>
          <internalNodes>
            0 -1 111 1363767799 -258846235 -804763515 -656600683
            188768371 1971421314 -1946152383 -715087679</internalNodes>
          <leafValues>
            -7.3567599058151245e-01 5.0720554590225220e-01</leafValues></_>
        <_>
          <internalNodes>
            0 -1 3 -787021840 -149716095 272896070 -47901631 1610646418
            872480897 1073758474 362272893</internalNodes>
          <leafValues>
            -6.3661080598831177e-01 6.2238603830337524e-01</leafValues></_>
        <_>
          <internalNodes>
            0 -1 82 -532541892 -1258061690 -695788633 -1949071342
            939563045 -461240289 -1609391155 -532255148</internalNodes>
          <leafValues>
            -7.7529466152191162e-01 4.8958551883697510e-01</leafValues></_>
        <_>
          <internalNodes>
            0 -1 24 -140324660 -145436383 -1073720951 -184531708
            -1979020544 -251428857 -1610501751 -70917423</internalNodes>
          <leafValues>
            -6.9773644208908081e-01 5.8098328113555908e-01</leafValues></_></weakClassifiers></_>
    <!-- stage 1 -->
    <_>
      <maxWeakCount>6</maxWeakCount>
      <stageThreshold>-1.3780854940414429e+00</stageThreshold>
      <weakClassifiers>
        <_>
          <internalNodes>
            0 -1 79 -771645440 -993918848 486606050 -254083071
            -1475682302 -368934838 -1953969531 -20299647</internalNodes>
          <leafValues>
            -6.4301073551177979e-01 6.1585903167724609e-01</leafValues></_>
        <_>
          <internalNodes>
            0 -1 18 -676688704 -1331500 -822804527 -537007371 -808652861
            -1359097871 -1881804837 -570437773</internalNodes>
          <leafValues>
            -5.4416024684906006e-01 6.2596768140792847e-01</leafValues></_>
        <_>
          <internalNodes>
            0 -1 126 -183975240 1396704544 17027265 -1656651328
            -2147317526 -116719480 1084785354 488603956</internalNodes>
          <leafValues>
            -7.0193612575531006e-01 5.3341853618621826e-01</leafValues></_>
        <_>
          <internalNodes>
            0 -1 69 -125269560 -1929379801 285236349 -461291496
            -2013232945 -1945587447 -1190654834 -32829293</internalNodes>
          <leafValues>
            -5.9627372026443481e-01 5.9687763452529907e-01</leafValues></_>
        <_>
          <internalNodes>
            0 -1 98 -769631307 -37535546 1091637712 -1073626476
            1963534734 -670695404 -511180613 -805306011</internalNodes>
          <leafValues>
            -6.7231273651123047e-01 4.8021575808525085e-01</leafValues></_>
        <_>
          <internalNodes>
            0 -1 15 268477666 -788462576 -754974144 -107675630
            -2013265720 -1165328384 8929529 2010339611</internalNodes>
          <leafValues>
            -7.1461629867553711e-01 4.6342307329177856e-01</leafValues></_></weakClassifiers></_>
    <!-- stage 2 -->
    <_>
      <maxWeakCount>7</maxWeakCount>
      <stageThreshold>-8.0091893672943115e-01</stageThreshold>
      <weakClassifiers>
        <_>
          <internalNodes>
            0 -1 60 -728267062 -997982076 -1877978826 1075890312
            1074249922 -1442119616 -1584809246 1661139539</internalNodes>
          <leafValues>
            -6.5795725584030151e-01 5.7421541213989258e-01</leafValues></_>
        <_>
          <internalNodes>
            0 -1 88 -238401824 1402048512 269500434 -719092637
            1501610632 1368076288 1073743736 -166248378</internalNodes>
          <leafValues>
            -7.4389892816543579e-01 4.1679671406745911e-01</leafValues></_>
        <_>
          <internalNodes>
            0 -1 127 824178903 -753840128 536969859 -1056960509
            -402488946 -641630199 1510170792 1078411471</internalNodes>
          <leafValues>
            -4.9944588541984558e-01 6.1085480451583862e-01</leafValues></_>
        <_>
          <internalNodes>
            0 -1 5 -1595489058 -611630906 -2142764930 -50212519 951771
            1354956928 -2113873889 700940499</internalNodes>
          <leafValues>
            -5.7546252012252808e-01 5.5897051095962524e-01</leafValues></_>
        <_>
          <internalNodes>
            0 -1 59 -531373874 -2138685300 -250491635 2015264779
            -2111667576 -2004221916 -242712438 -85726383</internalNodes>
          <leafValues>
            -6.6009932756423950e-01 4.8010262846946716e-01</leafValues></_>
        <_>
          <internalNodes>
            0 -1 135 -138742341 -713293996 -34078985 -771883521
            -2013626788 1566398454 -611404362 -784081569</internalNodes>
          <leafValues>
            -5.1864361763000488e-01 6.1412686109542847e-01</leafValues></_>
        <_>
          <internalNodes>
            0 -1 151 -640765888 269111318 1118466 411500803 -1971060093
            -2138865662 680003788 1476846091</internalNodes>
          <leafValues>
            -5.5660969018936157e-01 5.6394571065902710e-01</leafValues></_></weakClassifiers></_>
    <!-- stage 3 -->
    <_>
      <maxWeakCount>6</maxWeakCount>
      <stageThreshold>-7.1072304248809814e-01</stageThreshold>
      <weakClassifiers>
        <_>
          <internalNodes>
            0 -1 120 488333085 226590721 34046277 -793411433 882051137
            -919924728 -213572960 -1073715595</internalNodes>
          <leafValues>
            -6.3679248094558716e-01 5.6972789764404297e-01</leafValues></_>
        <_>
          <internalNodes>
            0 -1 1 -147459600 -1811656304 1073905808 1083527288
            -2146335534 1108410501 -918451037 1079209629</internalNodes>
          <leafValues>
            -6.5476626157760620e-01 4.3732494115829468e-01</leafValues></_>
        <_>
          <internalNodes>
            0 -1 71 142758663 -1845427164 1745413342 -981466863
            -1325260136 1388380217 1880121383 -387674299</internalNodes>
          <leafValues>
            -6.5609902143478394e-01 4.7412422299385071e-01</leafValues></_>
        <_>
          <internalNodes>
            0 -1 100 -1071237351 -393735552 -1877864432 -725544884
            -1744281566 -783679232 -1182037309 -1817444208</internalNodes>
          <leafValues>
            -7.3376148939132690e-01 3.8330605626106262e-01</leafValues></_>
        <_>
          <internalNodes>
            0 -1 103 -615705800 1497956621 168063 1531904156 1535675352
            726257798 50372902 1467957316</internalNodes>
          <leafValues>
            -7.7601051330566406e-01 3.5143360495567322e-01</leafValues></_>
        <_>
          <internalNodes>
            0 -1 105 -976234131 1360334853 1074842127 1099105321
            -784152559 8390722 -2012634470 -2146197413</internalNodes>
          <leafValues>
            -5.6223255395889282e-01 5.2439224720001221e-01</leafValues></_></weakClassifiers></_>
    <!-- stage 4 -->
    <_>
      <maxWeakCount>7</maxWeakCount>
      <stageThreshold>-9.5893293619155884e-01</stageThreshold>
      <weakClassifiers>
        <_>
          <internalNodes>
            0 -1 67 873333488 1352196306 273749267 -226127732
            -2013154960 -607649632 -1719372496 -73368496</internalNodes>
          <leafValues>
            -7.6947039365768433e-01 5.0586396455764771e-01</leafValues></_>
        <_>
          <internalNodes>
            0 -1 37 -958418057 -1475116909 -1073001795 -953843583
            -527846425 402653313 -998014672 1191653635</internalNodes>
          <leafValues>
            -5.8580493927001953e-01 4.6280640363693237e-01</leafValues></_>
        <_>
          <internalNodes>
            0 -1 115 989051645 -1974877631 1073844377 -2138611615
            145031402 -2008875006 -1475852261 -261208731</internalNodes>
          <leafValues>
            -5.4426354169845581e-01 5.2181935310363770e-01</leafValues></_>
        <_>
          <internalNodes>
            0 -1 46 -744992302 -788492264 1346502744 1571029074
            -1048539088 -1065189247 -1171703396 2021549230</internalNodes>
          <leafValues>
            -7.0775771141052246e-01 3.6985063552856445e-01</leafValues></_>
        <_>
          <internalNodes>
            0 -1 30 -454370765 -4436 -1066624261 -379257117 -69425
            -293601409 -1015686182 -975962761</internalNodes>
          <leafValues>
            -4.6364763379096985e-01 6.2976545095443726e-01</leafValues></_>
        <_>
          <internalNodes>
            0 -1 116 1914402807 -686585984 -2113290091 990052361
            672458624 -1736343540 -1073512210 -1810300859</internalNodes>
          <leafValues>
            -5.0936198234558105e-01 5.7213604450225830e-01</leafValues></_>
        <_>
          <internalNodes>
            0 -1 13 -1434145790 1478721556 1091712025 -1190031354
            -2147300469 1015037969 -796278141 -953818865</internalNodes>
          <leafValues>
            -5.9825950860977173e-01 5.0223618745803833e-01</leafValues></_></weakClassifiers></_>
    <!-- stage 5 -->
    <_>
      <maxWeakCount>6</maxWeakCount>
      <stageThreshold>-1.3207739591598511e+00</stageThreshold>
      <weakClassifiers>
        <_>
          <internalNodes>
            0 -1 111 1930903651 -2143289133 553697939 269811973
            445661714 831127563 -1342115775 -2141708144</internalNodes>
          <leafValues>
            -7.4213838577270508e-01 4.9609982967376709e-01</leafValues></_>
        <_>
          <internalNodes>
            0 -1 81 -842847146 -654204274 2179103 -519847737 319496360
            -1899954141 1761608108 -435895244</internalNodes>
          <leafValues>
            -6.2929087877273560e-01 3.9593979716300964e-01</leafValues></_>
        <_>
          <internalNodes>
            0 -1 80 234902351 -2130460512 18055507 1361675776
            -1182654302 -939294080 -1303070561 -595539133</internalNodes>
          <leafValues>
            -5.0718432664871216e-01 5.4667651653289795e-01</leafValues></_>
        <_>
          <internalNodes>
            0 -1 20 -629157917 1106247653 -1702887579 1943928769 -4152
            -1879244809 -8978593 -673841165</internalNodes>
          <leafValues>
            -4.6964806318283081e-01 6.1882358789443970e-01</leafValues></_>
        <_>
          <internalNodes>
            0 -1 12 -748257274 677052880 1351746897 2110984349
            -939454330 -536764410 1216383307 -278805561</internalNodes>
          <leafValues>
            -5.8204597234725952e-01 4.9922895431518555e-01</leafValues></_>
        <_>
          <internalNodes>
            0 -1 62 -1931206031 277873687 17429 -742789108 -2142595816
            -2130704224 -393981311 -876187536</internalNodes>
          <leafValues>
            -7.5068277120590210e-01 3.7129545211791992e-01</leafValues></_></weakClassifiers></_>
    <!-- stage 6 -->
    <_>
      <maxWeakCount>7</maxWeakCount>
      <stageThreshold>-8.6790800094604492e-01</stageThreshold>
      <weakClassifiers>
        <_>
          <internalNodes>
            0 -1 44 -788213554 1359041536 1635778578 104300566
            -1039097728 -922185727 1969467632 1594562751</internalNodes>
          <leafValues>
            -5.5608594417572021e-01 5.3598642349243164e-01</leafValues></_>
        <_>
          <internalNodes>
            0 -1 2 -925604402 -665710462 -2025697208 -1137534796
            1124614455 1498611841 -1055768089 -37232057</internalNodes>
          <leafValues>
            -5.7113903760910034e-01 4.5175242424011230e-01</leafValues></_>
        <_>
          <internalNodes>
            0 -1 114 -149818023 -464375424 16977949 142802955
            -1548164456 11161736 -2146846691 1093134335</internalNodes>
          <leafValues>
            -5.5779117345809937e-01 4.6194422245025635e-01</leafValues></_>
        <_>
          <internalNodes>
            0 -1 34 -1003164768 1401110596 -2130685933 1074840032
            -2117553236 -1457807328 -1065254502 -771893165</internalNodes>
          <leafValues>
            -5.4206794500350952e-01 4.9244964122772217e-01</leafValues></_>
        <_>
          <internalNodes>
            0 -1 122 583471659 16842884 -1342177260 1347764377 826798320
            -904167415 -2013230439 -1065235127</internalNodes>
          <leafValues>
            -6.2370020151138306e-01 4.4222995638847351e-01</leafValues></_>
        <_>
          <internalNodes>
            0 -1 43 -1006164785 -1987030847 136037 -721059728 1518911503
            255623332 948474451 1391692803</internalNodes>
          <leafValues>
            -6.2344753742218018e-01 4.2555862665176392e-01</leafValues></_>
        <_>
          <internalNodes>
            0 -1 9 -528174866 -696201067 -1988001403 -171932926
            810075115 1342242817 554288026 -976240341</internalNodes>
          <leafValues>
            -5.0009143352508545e-01 5.4412049055099487e-01</leafValues></_></weakClassifiers></_>
    <!-- stage 7 -->
    <_>
      <maxWeakCount>8</maxWeakCount>
      <stageThreshold>-6.8896698951721191e-01</stageThreshold>
      <weakClassifiers>
        <_>
          <internalNodes>
            0 -1 77 1744980572 495551724 147642 42193632 -2112484894
            -1441754967 1952476159 -154875051</internalNodes>
          <leafValues>
            -6.2765955924987793e-01 5.1960784196853638e-01</leafValues></_>
        <_>
          <internalNodes>
            0 -1 56 1383500367 943214662 -2147429953 -547499955
            295682756 1091219562 -2057301240 -1370111725</internalNodes>
          <leafValues>
            -5.0650447607040405e-01 4.7269359230995178e-01</leafValues></_>
        <_>
          <internalNodes>
            0 -1 7 286783456 587661738 -2147477292 -744730614
            -2008383357 1264353314 142711695 -516431837</internalNodes>
          <leafValues>
            -6.2728148698806763e-01 3.7569740414619446e-01</leafValues></_>
        <_>
          <internalNodes>
            0 -1 36 -1073577098 1444119350 1092751635 1460224328
            38668439 -1610071987 -1050180608 1360368403</internalNodes>
          <leafValues>
            -6.2380784749984741e-01 3.8498887419700623e-01</leafValues></_>
        <_>
          <internalNodes>
            0 -1 132 -1284594825 824433200 419528961 1369505961
            -1467481122 -2000617088 -1725824800 124721390</internalNodes>
          <leafValues>
            -5.8896070718765259e-01 3.9456847310066223e-01</leafValues></_>
        <_>
          <internalNodes>
            0 -1 41 -90210286 1892929555 1426397695 1846644762 984631436
            354550148 92944744 -808402166</internalNodes>
          <leafValues>
            -5.6366980075836182e-01 4.6701300144195557e-01</leafValues></_>
        <_>
          <internalNodes>
            0 -1 76 -2088300938 -1050389039 1073823825 1909919939
            101323536 -2007425012 -618213076 -522002346</internalNodes>
          <leafValues>
            -6.1558997631072998e-01 4.2499563097953796e-01</leafValues></_>
        <_>
          <internalNodes>
            0 -1 14 -716973138 1343635546 -1876621975 1544032476
            -1877921642 136593418 -1056796658 -741061458</internalNodes>
          <leafValues>
            -5.3188204765319824e-01 5.0476002693176270e-01</leafValues></_></weakClassifiers></_>
    <!-- stage 8 -->
    <_>
      <maxWeakCount>7</maxWeakCount>
      <stageThreshold>-8.4031486511230469e-01</stageThreshold>
      <weakClassifiers>
        <_>
          <internalNodes>
            0 -1 96 -2078902444 72728740 -851345008 -1059094443
            1277241535 993102337 -1291689816 -196054699</internalNodes>
          <leafValues>
            -6.9501465559005737e-01 5.0595712661743164e-01</leafValues></_>
        <_>
          <internalNodes>
            0 -1 63 -809914437 -269754382 -268468293 -92274689
            1341523532 -805306515 1585338182 -87351305</internalNodes>
          <leafValues>
            -4.4807052612304688e-01 4.8936823010444641e-01</leafValues></_>
        <_>
          <internalNodes>
            0 -1 31 -1852662906 349274176 1744838772 901678614 671298160
            -1417592440 1610969257 1772947609</internalNodes>
          <leafValues>
            -6.5466761589050293e-01 3.7476146221160889e-01</leafValues></_>
        <_>
          <internalNodes>
            0 -1 146 -1816538375 1005535100 -29892863 -681574549
            -50340537 -1795195267 -1786979696 -1145372774</internalNodes>
          <leafValues>
            -4.1591748595237732e-01 5.7344621419906616e-01</leafValues></_>
        <_>
          <internalNodes>
            0 -1 125 2031081625 -775340025 159449539 -1756561143
            1101013594 275457043 1133353627 1891659724</internalNodes>
          <leafValues>
            -4.6649923920631409e-01 4.9347448348999023e-01</leafValues></_>
        <_>
          <internalNodes>
            0 -1 95 1108731033 420286665 420186245 361136142 562664072
            -1601601402 1084435012 -1318960667</internalNodes>
          <leafValues>
            -5.8002865314483643e-01 4.2540398240089417e-01</leafValues></_>
        <_>
          <internalNodes>
            0 -1 149 1376194591 1695627529 545357905 1275148802
            -1073159630 1409966619 1561460766 1211532095</internalNodes>
          <leafValues>
            -5.5241715908050537e-01 4.7792363166809082e-01</leafValues></_></weakClassifiers></_>
    <!-- stage 9 -->
    <_>
      <maxWeakCount>7</maxWeakCount>
      <stageThreshold>-2.4068427085876465e-01</stageThreshold>
      <weakClassifiers>
        <_>
          <internalNodes>
            0 -1 93 -1319369700 -2141433510 -2122235518 -361082783
            -1609908156 -787937270 -2138467823 -121308827</internalNodes>
          <leafValues>
            -7.3333334922790527e-01 4.7692307829856873e-01</leafValues></_>
        <_>
          <internalNodes>
            0 -1 57 -1551567097 -1849655294 1091184068 -309984744
            -1672553131 -1432223728 2138548 1528513128</internalNodes>
          <leafValues>
            -6.5395605564117432e-01 3.5057279467582703e-01</leafValues></_>
        <_>
          <internalNodes>
            0 -1 4 -1474100657 -1098624946 122004146 1677984270
            1610719267 420872267 -1072967497 -112801206</internalNodes>
          <leafValues>
            -5.3990691900253296e-01 4.6812734007835388e-01</leafValues></_>
        <_>
          <internalNodes>
            0 -1 152 1650706693 -2146921210 -805205958 241084034
            47898752 12175362 -1475653372 6943735</internalNodes>
          <leafValues>
            -6.5697914361953735e-01 3.5344418883323669e-01</leafValues></_>
        <_>
          <internalNodes>
            0 -1 55 -954162095 1162580140 -1056921579 1432023041
            -2012591373 8658950 -525835618 -876231144</internalNodes>
          <leafValues>
            -5.5572867393493652e-01 4.1565507650375366e-01</leafValues></_>
        <_>
          <internalNodes>
            0 -1 48 -1077876071 -1954936716 695789239 2112920885
            -272781775 -813769290 -117687746 -1712255046</internalNodes>
          <leafValues>
            -4.3243277072906494e-01 5.4504925012588501e-01</leafValues></_>
        <_>
          <internalNodes>
            0 -1 32 -1115089900 1016203718 285216017 540346371
            -1601994056 -2105490782 -2147438951 544137343</internalNodes>
          <leafValues>
            -6.5369987487792969e-01 3.7236356735229492e-01</leafValues></_></weakClassifiers></_>
    <!-- stage 10 -->
    <_>
      <maxWeakCount>8</maxWeakCount>
      <stageThreshold>-5.8572041988372803e-01</stageThreshold>
      <weakClassifiers>
        <_>
          <internalNodes>
            0 -1 123 1898649607 1394212995 -1878716158 1351684203
            1092157441 889258386 -1970576831 -1405601368</internalNodes>
          <leafValues>
            -5.6060606241226196e-01 5.1661127805709839e-01</leafValues></_>
        <_>
          <internalNodes>
            0 -1 58 -1901076485 -1342277892 1342173119 1392467455
            -826890499 1331691447 -671726201 -623765661</internalNodes>
          <leafValues>
            -4.5659279823303223e-01 5.2231156826019287e-01</leafValues></_>
        <_>
          <internalNodes>
            0 -1 92 -955983124 -346945388 137360 -925646516 536890175
            159645851 -1504878351 -429708274</internalNodes>
          <leafValues>
            -6.5919566154479980e-01 3.7942644953727722e-01</leafValues></_>
        <_>
          <internalNodes>
            0 -1 143 1908658770 -1000832748 202753 1184325779
            -1448352244 1184039522 -1971191658 -586209905</internalNodes>
          <leafValues>
            -4.7951367497444153e-01 5.0685054063796997e-01</leafValues></_>
        <_>
          <internalNodes>
            0 -1 136 -1409165321 -1590996584 34082971 -897021818
            -2147360358 -1685470590 1091092872 -349544127</internalNodes>
          <leafValues>
            -5.2997612953186035e-01 4.7057369351387024e-01</leafValues></_>
        <_>
          <internalNodes>
            0 -1 86 994701782 -687503102 805373961 -587103808 -901021992
            -2138341364 579526977 1163046680</internalNodes>
          <leafValues>
            -6.3802576065063477e-01 3.8906595110893250e-01</leafValues></_>
        <_>
          <internalNodes>
            0 -1 101 -1862061840 365756490 352322962 700792989
            -1987523455 -2071953279 948114077 810117192</internalNodes>
          <leafValues>
            -7.3805123567581177e-01 3.2174181938171387e-01</leafValues></_>
        <_>
          <internalNodes>
            0 -1 42 1108513751 -962260777 151306563 -607985572
            -1341996105 -1994915710 -2147253963 1364042027</internalNodes>
          <leafValues>
            -5.4937064647674561e-01 4.2992123961448669e-01</leafValues></_></weakClassifiers></_>
    <!-- stage 11 -->
    <_>
      <maxWeakCount>10</maxWeakCount>
      <stageThreshold>-1.2264763116836548e+00</stageThreshold>
      <weakClassifiers>
        <_>
          <internalNodes>
            0 -1 38 -12309 -773554426 -1507671970 -822067204 -944101
            -524308 -92348589 -136053144</internalNodes>
          <leafValues>
            -4.2284569144248962e-01 5.5495005846023560e-01</leafValues></_>
        <_>
          <internalNodes>
            0 -1 68 -2069773911 -301788924 -2142224173 -1067466557
            8554929 -359100416 1471848672 -32353674</internalNodes>
          <leafValues>
            -5.0579613447189331e-01 4.2191883921623230e-01</leafValues></_>
        <_>
          <internalNodes>
            0 -1 25 -1428110703 -1589084080 207622555 -45227758
            -938835537 -312753982 -1966110049 -678377549</internalNodes>
          <leafValues>
            -4.6886005997657776e-01 4.6820876002311707e-01</leafValues></_>
        <_>
          <internalNodes>
            0 -1 129 406897071 -937279328 -1073478651 -599670711
            -1876275682 -1037500264 1208092290 -147168743</internalNodes>
          <leafValues>
            -5.2839648723602295e-01 4.2260405421257019e-01</leafValues></_>
        <_>
          <internalNodes>
            0 -1 147 -2121575614 -1047461824 1343438865 -976813671
            -2113398684 -66449386 1770031828 -1148443922</internalNodes>
          <leafValues>
            -4.8038050532341003e-01 5.0067234039306641e-01</leafValues></_>
        <_>
          <internalNodes>
            0 -1 133 1495093260 1380057361 33554707 1079837 -393879254
            1543670424 -2140604197 1241745551</internalNodes>
          <leafValues>
            -5.8965373039245605e-01 4.2586299777030945e-01</leafValues></_>
        <_>
          <internalNodes>
            0 -1 134 1431795543 -589472299 -1359578640 1238719857
            -189348210 -564269106 1184272028 -685802418</internalNodes>
          <leafValues>
            -4.1958141326904297e-01 5.7522082328796387e-01</leafValues></_>
        <_>
          <internalNodes>
            0 -1 49 -1069039401 -1056550532 285364495 1943865369
            -2138570596 -268435319 -1316487151 -288298888</internalNodes>
          <leafValues>
            -5.4307335615158081e-01 4.7257846593856812e-01</leafValues></_>
        <_>
          <internalNodes>
            0 -1 104 -778464813 -602865664 1888550933 269746192
            1763780885 -937916280 -2079740410 -795078548</internalNodes>
          <leafValues>
            -6.1361241340637207e-01 4.3157520890235901e-01</leafValues></_>
        <_>
          <internalNodes>
            0 -1 6 -2132690682 337708289 423625045 -1945042944
            1381026489 276824224 -2146396069 1409910914</internalNodes>
          <leafValues>
            -6.8445789813995361e-01 3.7173953652381897e-01</leafValues></_></weakClassifiers></_>
    <!-- stage 12 -->
    <_>
      <maxWeakCount>8</maxWeakCount>
      <stageThreshold>-7.1957981586456299e-01</stageThreshold>
      <weakClassifiers>
        <_>
          <internalNodes>
            0 -1 78 -1060066042 -2100785140 -1073707584 -492986340
            8552714 -66584295 -2134873536 -637389868</internalNodes>
          <leafValues>
            -7.5091576576232910e-01 4.5591560006141663e-01</leafValues></_>
        <_>
          <internalNodes>
            0 -1 29 -498022283 1272517206 -2063478249 -711236463
            -1097203515 -444577144 -1197223643 274109731</internalNodes>
          <leafValues>
            -5.5294525623321533e-01 3.7302917242050171e-01</leafValues></_>
        <_>
          <internalNodes>
            0 -1 139 -1649105578 927671552 285217154 1196982689
            269519512 8487314 272782736 -1660446305</internalNodes>
          <leafValues>
            -4.9163994193077087e-01 4.3966129422187805e-01</leafValues></_>
        <_>
          <internalNodes>
            0 -1 118 -1857732363 -1043625917 -2147372213 -464019383
            537092319 -2105399135 1284196360 -3433300</internalNodes>
          <leafValues>
            -4.9131351709365845e-01 4.3651226162910461e-01</leafValues></_>
        <_>
          <internalNodes>
            0 -1 110 285739272 185663489 1378353304 -921632099
            1940566261 -373816831 629795261 -114890082</internalNodes>
          <leafValues>
            -4.9242097139358521e-01 4.8941472172737122e-01</leafValues></_>
        <_>
          <internalNodes>
            0 -1 11 -732660242 1845891140 -787267582 -212823868
            1116773090 -1954299776 -32043007 886857735</internalNodes>
          <leafValues>
            -6.8348956108093262e-01 3.5040986537933350e-01</leafValues></_>
        <_>
          <internalNodes>
            0 -1 54 -800040706 402685960 -2080271879 411271761 295490
            -2130694142 -2147300818 314921823</internalNodes>
          <leafValues>
            -6.3014036417007446e-01 3.7424236536026001e-01</leafValues></_>
        <_>
          <internalNodes>
            0 -1 117 -2108651311 -868220928 -1073459131 1242306636
            26407088 -224212448 1073774768 -1792870375</internalNodes>
          <leafValues>
            -5.9794902801513672e-01 4.0370213985443115e-01</leafValues></_></weakClassifiers></_>
    <!-- stage 13 -->
    <_>
      <maxWeakCount>9</maxWeakCount>
      <stageThreshold>-9.0122646093368530e-01</stageThreshold>
      <weakClassifiers>
        <_>
          <internalNodes>
            0 -1 84 1166172924 -1861992426 1091767546 -2109276154
            1620586812 2015437474 1201734212 -166711244</internalNodes>
          <leafValues>
            -8.0000001192092896e-01 4.3529412150382996e-01</leafValues></_>
        <_>
          <internalNodes>
            0 -1 94 387324733 270239886 55116043 696968204 537002138
            -2145746814 -1728018229 -225084602</internalNodes>
          <leafValues>
            -4.8177757859230042e-01 4.3282869458198547e-01</leafValues></_>
        <_>
          <internalNodes>
            0 -1 85 1375834304 1343259024 335806740 1401250049
            -1555529311 -778272759 1158754235 267293948</internalNodes>
          <leafValues>
            -4.9927631020545959e-01 4.3698155879974365e-01</leafValues></_>
        <_>
          <internalNodes>
            0 -1 128 -473384523 -79593407 1384237241 117770253
            -1744264036 706388121 629777327 1646741921</internalNodes>
          <leafValues>
            -5.4090470075607300e-01 4.0037009119987488e-01</leafValues></_>
        <_>
          <internalNodes>
            0 -1 39 -1626534047 -545280202 1338277759 -570491019
            -850989125 -1073762451 -1889730918 -580915441</internalNodes>
          <leafValues>
            -3.9967927336692810e-01 5.5410397052764893e-01</leafValues></_>
        <_>
          <internalNodes>
            0 -1 87 -961618361 -139985284 -202376577 -268968969
            2012346195 2012706654 -168364166 -428411522</internalNodes>
          <leafValues>
            -4.2933937907218933e-01 5.5989634990692139e-01</leafValues></_>
        <_>
          <internalNodes>
            0 -1 50 -612125981 -534064936 -1728048344 -2097412967
            -804186092 -1445066716 -1574893241 1346519621</internalNodes>
          <leafValues>
            -6.8946087360382080e-01 3.6259397864341736e-01</leafValues></_>
        <_>
          <internalNodes>
            0 -1 142 -242802656 1304821977 1208397249 -1962849257
            -1459498611 -1733902328 -1945386789 -1168372386</internalNodes>
          <leafValues>
            -5.3060364723205566e-01 4.4661885499954224e-01</leafValues></_>
        <_>
          <internalNodes>
            0 -1 70 -1418032389 -1073807777 -67108866 -1342177442
            -10756179 -1082130627 2122151800 662041927</internalNodes>
          <leafValues>
            -4.4900792837142944e-01 5.4477667808532715e-01</leafValues></_></weakClassifiers></_>
    <!-- stage 14 -->
    <_>
      <maxWeakCount>9</maxWeakCount>
      <stageThreshold>-1.0176103115081787e+00</stageThreshold>
      <weakClassifiers>
        <_>
          <internalNodes>
            0 -1 45 -285311937 -353435713 1342629631 1929297887
            -25272464 671088511 -153684621 1433895731</internalNodes>
          <leafValues>
            -4.4298246502876282e-01 5.2622377872467041e-01</leafValues></_>
        <_>
          <internalNodes>
            0 -1 130 -1576437699 -791271178 -788299690 -225877801
            -2147477501 -1739915231 -1610573791 -100601807</internalNodes>
          <leafValues>
            -5.5428260564804077e-01 3.6242598295211792e-01</leafValues></_>
        <_>
          <internalNodes>
            0 -1 102 1352320648 -519595963 -2130501134 -1589002032
            143778760 172195985 118259802 -1692171962</internalNodes>
          <leafValues>
            -5.2727353572845459e-01 3.7929508090019226e-01</leafValues></_>
        <_>
          <internalNodes>
            0 -1 40 -2090997710 1468763928 285415439 1409876224
            -1023168375 -1727586298 -1172690033 1217102017</internalNodes>
          <leafValues>
            -4.6555134654045105e-01 4.6186152100563049e-01</leafValues></_>
        <_>
          <internalNodes>
            0 -1 28 420704767 1011942547 -1609546530 -179382568
            1376256532 -1610612600 1611739804 -1434367997</internalNodes>
          <leafValues>
            -4.8698142170906067e-01 4.3941718339920044e-01</leafValues></_>
        <_>
          <internalNodes>
            0 -1 112 1343131702 1964507204 16842802 -685957034 415836827
            948437194 -2147449455 -1895151218</internalNodes>
          <leafValues>
            -5.6591397523880005e-01 4.1661483049392700e-01</leafValues></_>
        <_>
          <internalNodes>
            0 -1 141 11989823 21397570 -2113847101 1397786244
            -1606219483 -1031667694 -1047837523 -1651557800</internalNodes>
          <leafValues>
            -4.3881058692932129e-01 5.2999156713485718e-01</leafValues></_>
        <_>
          <internalNodes>
            0 -1 19 -1004791754 1431539934 331464960 -586909540
            -805273329 411047956 1075872130 1531116176</internalNodes>
          <leafValues>
            -6.5468037128448486e-01 3.6151620745658875e-01</leafValues></_>
        <_>
          <internalNodes>
            0 -1 91 -2123235048 -2084143036 -787279846 -1068105127
            1354778849 -1744797661 -725595997 -221500400</internalNodes>
          <leafValues>
            -7.4688333272933960e-01 2.9322999715805054e-01</leafValues></_></weakClassifiers></_>
    <!-- stage 15 -->
    <_>
      <maxWeakCount>9</maxWeakCount>
      <stageThreshold>-9.6697574853897095e-01</stageThreshold>
      <weakClassifiers>
        <_>
          <internalNodes>
            0 -1 89 -2059402682 428245072 1091649566 -1066962534
            1979716360 587759642 1635914248 -163408574</internalNodes>
          <leafValues>
            -6.2300318479537964e-01 4.6231546998023987e-01</leafValues></_>
        <_>
          <internalNodes>
            0 -1 83 1901580984 1609744 353206405 17019096 845551966
            273285312 -1237014581 -121290145</internalNodes>
          <leafValues>
            -4.3292510509490967e-01 4.4042795896530151e-01</leafValues></_>
        <_>
          <internalNodes>
            0 -1 106 -917600964 -917700600 84148239 1377988610
            -1954511916 134906017 671203407 554107408</internalNodes>
          <leafValues>
            -6.3776659965515137e-01 3.6301705241203308e-01</leafValues></_>
        <_>
          <internalNodes>
            0 -1 140 806588964 8400897 -1190849274 1187053888
            -1879011124 -1147494389 -1070477964 1788594473</internalNodes>
          <leafValues>
            -6.1852848529815674e-01 2.9944869875907898e-01</leafValues></_>
        <_>
          <internalNodes>
            0 -1 138 -1207491940 -1471037435 -2012987374 -589328349
            -402120508 -1979674240 -1056952190 -206665576</internalNodes>
          <leafValues>
            -5.0211369991302490e-01 4.2814868688583374e-01</leafValues></_>
        <_>
          <internalNodes>
            0 -1 64 9536193 -922367616 102717 -1027112508 17322408
            -930807808 402784906 -91729701</internalNodes>
          <leafValues>
            -5.7659089565277100e-01 4.2452108860015869e-01</leafValues></_>
        <_>
          <internalNodes>
            0 -1 90 -1786130201 -736788197 16847334 -2029517792
            1611180761 19595296 815860386 -1283095835</internalNodes>
          <leafValues>
            -4.9255135655403137e-01 4.7652596235275269e-01</leafValues></_>
        <_>
          <internalNodes>
            0 -1 121 -1853679822 -2076114680 -1073738865 -1877146624
            -133692874 966263688 151734702 1476532848</internalNodes>
          <leafValues>
            -5.6506437063217163e-01 4.1930311918258667e-01</leafValues></_>
        <_>
          <internalNodes>
            0 -1 22 -1074143233 -76636161 -285213592 961117692
            1040109360 -136872124 -1265633760 -77374397</internalNodes>
          <leafValues>
            -4.2106762528419495e-01 5.6764781475067139e-01</leafValues></_></weakClassifiers></_>
    <!-- stage 16 -->
    <_>
      <maxWeakCount>9</maxWeakCount>
      <stageThreshold>-5.3910291194915771e-01</stageThreshold>
      <weakClassifiers>
        <_>
          <internalNodes>
            0 -1 108 1560051639 1837838324 -1 -654311428 2139171129
            -32897 -131532 -1052083147</internalNodes>
          <leafValues>
            -4.6516853570938110e-01 5.2554112672805786e-01</leafValues></_>
        <_>
          <internalNodes>
            0 -1 124 -2088697073 8487050 1131550 1480130875 -1070746438
            -106366951 -1182274820 -194657692</internalNodes>
          <leafValues>
            -4.4272929430007935e-01 4.3907311558723450e-01</leafValues></_>
        <_>
          <internalNodes>
            0 -1 66 -2011549696 -800620016 -2138553961 -745164459
            -367885394 -57360239 1242351839 -1090381041</internalNodes>
          <leafValues>
            -5.0331944227218628e-01 4.1275867819786072e-01</leafValues></_>
        <_>
          <internalNodes>
            0 -1 148 -1884629693 644538317 -67174409 1132420805
            -962799908 1190526837 -197745195 -1561150113</internalNodes>
          <leafValues>
            -3.8987180590629578e-01 5.4878294467926025e-01</leafValues></_>
        <_>
          <internalNodes>
            0 -1 53 -627636202 429773458 1091043726 -674430575
            -521469805 152764625 -502358005 -2033737448</internalNodes>
          <leafValues>
            -5.2158242464065552e-01 4.0850475430488586e-01</leafValues></_>
        <_>
          <internalNodes>
            0 -1 47 -403327333 -5313042 -554436749 -601620939
            -1217152684 -1366229894 -205138444 -1421828752</internalNodes>
          <leafValues>
            -4.5681861042976379e-01 5.0404900312423706e-01</leafValues></_>
        <_>
          <internalNodes>
            0 -1 74 1525551606 536621054 1711025985 -77251090 -159497797
            2002730866 -46553859 -31851297</internalNodes>
          <leafValues>
            -3.6602020263671875e-01 6.2705326080322266e-01</leafValues></_>
        <_>
          <internalNodes>
            0 -1 144 -1083646470 -295010598 -33620242 -654578433
            2002025716 -553812139 1953689191 -549217547</internalNodes>
          <leafValues>
            -4.3703490495681763e-01 5.4733586311340332e-01</leafValues></_>
        <_>
          <internalNodes>
            0 -1 65 572663136 -1862135801 1410421023 -1626012461
            411053226 -383745736 147456239 554463302</internalNodes>
          <leafValues>
            -6.8380260467529297e-01 3.6804163455963135e-01</leafValues></_></weakClassifiers></_>
    <!-- stage 17 -->
    <_>
      <maxWeakCount>9</maxWeakCount>
      <stageThreshold>-8.6987954378128052e-01</stageThreshold>
      <weakClassifiers>
        <_>
          <internalNodes>
            0 -1 109 1602224125 1073741797 -19465489 -353370627
            2139092861 -285212673 -589922315 -1068317611</internalNodes>
          <leafValues>
            -3.6842104792594910e-01 5.5805242061614990e-01</leafValues></_>
        <_>
          <internalNodes>
            0 -1 72 323166472 268764040 1225133844 -650641074
            -1605855231 -1331132312 269038372 723126671</internalNodes>
          <leafValues>
            -6.7490184307098389e-01 3.1824404001235962e-01</leafValues></_>
        <_>
          <internalNodes>
            0 -1 107 -1852099882 -1824423552 27304327 -1463484288
            -2088220568 -1207435136 -1731163936 -1286967031</internalNodes>
          <leafValues>
            -4.7282540798187256e-01 4.4124561548233032e-01</leafValues></_>
        <_>
          <internalNodes>
            0 -1 17 -1608865582 -1726390119 1889816669 400115905
            -2139030981 -108688880 1082313647 -1953120121</internalNodes>
          <leafValues>
            -4.9706369638442993e-01 4.2510509490966797e-01</leafValues></_>
        <_>
          <internalNodes>
            0 -1 0 -326965313 1212860493 -1610589813 -1525481152
            -1065330259 1476952160 688444179 1686593826</internalNodes>
          <leafValues>
            -4.6384522318840027e-01 4.4747367501258850e-01</leafValues></_>
        <_>
          <internalNodes>
            0 -1 8 1431795147 1380134976 -796868602 -2091760511
            134266981 596213769 39323699 1996703958</internalNodes>
          <leafValues>
            -4.8663863539695740e-01 4.5925348997116089e-01</leafValues></_>
        <_>
          <internalNodes>
            0 -1 150 -913014092 -1132130288 3218 1120279329 1095815202
            -2060463999 2796236 -2116351812</internalNodes>
          <leafValues>
            -5.4602313041687012e-01 4.1810950636863708e-01</leafValues></_>
        <_>
          <internalNodes>
            0 -1 16 -519838274 -788520830 -451870655 -665713664
            -1341646848 -1702854260 1087020024 -283525111</internalNodes>
          <leafValues>
            -5.0304836034774780e-01 4.4853374361991882e-01</leafValues></_>
        <_>
          <internalNodes>
            0 -1 119 -2088188302 487823382 -2130689741 454135808
            -2111946314 -1340964736 -2138139578 395579583</internalNodes>
          <leafValues>
            -6.2146925926208496e-01 3.8583770394325256e-01</leafValues></_></weakClassifiers></_>
    <!-- stage 18 -->
    <_>
      <maxWeakCount>9</maxWeakCount>
      <stageThreshold>-6.4108121395111084e-01</stageThreshold>
      <weakClassifiers>
        <_>
          <internalNodes>
            0 -1 26 -1740193312 1133330820 1493176912 214733056
            -2009628575 -1132183543 -1939640236 10786962</internalNodes>
          <leafValues>
            -6.8217056989669800e-01 4.2921012639999390e-01</leafValues></_>
        <_>
          <internalNodes>
            0 -1 21 -335556621 1607466751 -25165841 -67633309 -8400920
            -1904410627 -8978610 -461897766</internalNodes>
          <leafValues>
            -3.3354067802429199e-01 5.6818717718124390e-01</leafValues></_>
        <_>
          <internalNodes>
            0 -1 61 -1005498190 -787315904 1208095108 1934360622
            -1022254831 -2138961781 -385282150 2090094619</internalNodes>
          <leafValues>
            -5.1235461235046387e-01 4.0292090177536011e-01</leafValues></_>
        <_>
          <internalNodes>
            0 -1 33 -1146230671 -285483908 1094045877 -582361735
            -21193736 -285213318 1643216602 -1935704071</internalNodes>
          <leafValues>
            -4.1276857256889343e-01 5.1634722948074341e-01</leafValues></_>
        <_>
          <internalNodes>
            0 -1 145 2031590161 -2062053303 -1862205438 142811393
            1132864352 581603973 -705898435 1078126951</internalNodes>
          <leafValues>
            -6.3429117202758789e-01 3.2132849097251892e-01</leafValues></_>
        <_>
          <internalNodes>
            0 -1 137 -1856665092 235143268 1073844245 1680293900
            -930617923 1824079888 143262594 -888864159</internalNodes>
          <leafValues>
            -5.3741812705993652e-01 4.0422618389129639e-01</leafValues></_>
        <_>
          <internalNodes>
            0 -1 51 -533467777 -1073828115 -1082188040 2078424016
            1028117892 -1808737415 1160370175 -416582061</internalNodes>
          <leafValues>
            -3.8329130411148071e-01 6.4024186134338379e-01</leafValues></_>
        <_>
          <internalNodes>
            0 -1 10 -425541381 1132708127 -1325399851 1673825798 69649
            -1433894719 -217939835 839378441</internalNodes>
          <leafValues>
            -4.6993127465248108e-01 4.8156559467315674e-01</leafValues></_>
        <_>
          <internalNodes>
            0 -1 23 -290735936 -1052689 -50403776 -134582290 1458568098
            1282832095 1853292480 -717768707</internalNodes>
          <leafValues>
            -4.5749574899673462e-01 4.8889169096946716e-01</leafValues></_></weakClassifiers></_>
    <!-- stage 19 -->
    <_>
      <maxWeakCount>8</maxWeakCount>
      <stageThreshold>-7.9620939493179321e-01</stageThreshold>
      <weakClassifiers>
        <_>
          <internalNodes>
            0 -1 75 559024258 -280555488 420578320 -1038663267 42516746
            -2146954664 545669410 -1362619791</internalNodes>
          <leafValues>
            -6.2732917070388794e-01 4.7104850411415100e-01</leafValues></_>
        <_>
          <internalNodes>
            0 -1 131 771191581 -1981513718 34144920 1557992469
            1628729744 -928825143 -379057927 21031493</internalNodes>
          <leafValues>
            -6.7721670866012573e-01 3.0076640844345093e-01</leafValues></_>
        <_>
          <internalNodes>
            0 -1 113 -1031545071 353116763 -1266675707 -2147418109
            -2147262080 1073873027 -1944016384 1179898654</internalNodes>
          <leafValues>
            -5.4671341180801392e-01 3.7762224674224854e-01</leafValues></_>
        <_>
          <internalNodes>
            0 -1 99 419948379 272105536 -1861203174 -1660600299 782698
            -1416920392 1213685 -56135238</internalNodes>
          <leafValues>
            -4.6545383334159851e-01 4.2023482918739319e-01</leafValues></_>
        <_>
          <internalNodes>
            0 -1 73 142639227 121831425 1075023892 -1038938055 46137403
            -1878360014 304621631 -792231351</internalNodes>
          <leafValues>
            -5.4715532064437866e-01 4.0818521380424500e-01</leafValues></_>
        <_>
          <internalNodes>
            0 -1 52 186123952 -1290034224 -1827548847 332759777
            -955235405 -1604837232 -258330979 -1818655165</internalNodes>
          <leafValues>
            -5.6758767366409302e-01 3.6025190353393555e-01</leafValues></_>
        <_>
          <internalNodes>
            0 -1 97 -791088977 1413619793 538120816 -598392307
            -200767416 1489666058 279150784 -954033312</internalNodes>
          <leafValues>
            -5.5749773979187012e-01 4.0822970867156982e-01</leafValues></_>
        <_>
          <internalNodes>
            0 -1 27 -1071193916 690848402 4195840 -703491703 -1879046016
            -914193183 671156265 1431576587</internalNodes>
          <leafValues>
            -6.0314130783081055e-01 3.9116194844245911e-01</leafValues></_></weakClassifiers></_></stages>
  <features>
    <_>
      <rect>
        0 0 8 7</rect></_>
    <_>
      <rect>
        0 0 26 13</rect></_>
    <_>
      <rect>
        0 7 18 10</rect></_>
    <_>
      <rect>
        2 3 26 12</rect></_>
    <_>
      <rect>
        3 10 14 8</rect></_>
    <_>
      <rect>
        6 0 15 10</rect></_>
    <_>
      <rect>
        7 0 24 6</rect></_>
    <_>
      <rect>
        7 7 19 6</rect></_>
    <_>
      <rect>
        8 16 8 7</rect></_>
    <_>
      <rect>
        9 0 11 8</rect></_>
    <_>
      <rect>
        9 3 7 8</rect></_>
    <_>
      <rect>
        11 0 10 12</rect></_>
    <_>
      <rect>
        12 1 14 9</rect></_>
    <_>
      <rect>
        15 0 13 7</rect></_>
    <_>
      <rect>
        17 19 9 5</rect></_>
    <_>
      <rect>
        19 18 13 4</rect></_>
    <_>
      <rect>
        19 22 7 5</rect></_>
    <_>
      <rect>
        20 0 9 6</rect></_>
    <_>
      <rect>
        20 2 10 8</rect></_>
    <_>
      <rect>
        20 11 8 9</rect></_>
    <_>
      <rect>
        20 12 9 4</rect></_>
    <_>
      <rect>
        20 14 9 3</rect></_>
    <_>
      <rect>
        20 19 4 4</rect></_>
    <_>
      <rect>
        20 21 3 2</rect></_>
    <_>
      <rect>
        21 0 10 13</rect></_>
    <_>
      <rect>
        21 3 6 7</rect></_>
    <_>
      <rect>
        21 8 8 6</rect></_>
    <_>
      <rect>
        21 13 5 5</rect></_>
    <_>
      <rect>
        21 21 11 6</rect></_>
    <_>
      <rect>
        22 12 5 4</rect></_>
    <_>
      <rect>
        22 12 6 3</rect></_>
    <_>
      <rect>
        22 20 11 4</rect></_>
    <_>
      <rect>
        23 1 17 10</rect></_>
    <_>
      <rect>
        23 8 5 5</rect></_>
    <_>
      <rect>
        23 8 9 4</rect></_>
    <_>
      <rect>
        23 10 11 7</rect></_>
    <_>
      <rect>
        23 12 6 6</rect></_>
    <_>
      <rect>
        23 14 5 4</rect></_>
    <_>
      <rect>
        23 15 10 4</rect></_>
    <_>
      <rect>
        24 4 9 6</rect></_>
    <_>
      <rect>
        24 8 5 6</rect></_>
    <_>
      <rect>
        24 10 7 4</rect></_>
    <_>
      <rect>
        24 14 5 5</rect></_>
    <_>
      <rect>
        24 16 8 2</rect></_>
    <_>
      <rect>
        24 17 11 5</rect></_>
    <_>
      <rect>
        24 18 4 2</rect></_>
    <_>
      <rect>
        24 18 9 5</rect></_>
    <_>
      <rect>
        24 20 1 1</rect></_>
    <_>
      <rect>
        25 5 5 5</rect></_>
    <_>
      <rect>
        25 12 8 4</rect></_>
    <_>
      <rect>
        25 20 3 2</rect></_>
    <_>
      <rect>
        25 25 8 5</rect></_>
    <_>
      <rect>
        26 2 7 6</rect></_>
    <_>
      <rect>
        26 9 6 5</rect></_>
    <_>
      <rect>
        26 17 5 5</rect></_>
    <_>
      <rect>
        27 5 7 7</rect></_>
    <_>
      <rect>
        27 13 6 4</rect></_>
    <_>
      <rect>
        27 13 10 5</rect></_>
    <_>
      <rect>
        27 15 4 3</rect></_>
    <_>
      <rect>
        27 15 5 4</rect></_>
    <_>
      <rect>
        27 16 6 4</rect></_>
    <_>
      <rect>
        27 19 7 5</rect></_>
    <_>
      <rect>
        28 8 7 6</rect></_>
    <_>
      <rect>
        28 16 4 2</rect></_>
    <_>
      <rect>
        28 17 4 2</rect></_>
    <_>
      <rect>
        29 1 6 4</rect></_>
    <_>
      <rect>
        29 3 3 4</rect></_>
    <_>
      <rect>
        29 12 7 4</rect></_>
    <_>
      <rect>
        29 16 3 3</rect></_>
    <_>
      <rect>
        29 16 4 2</rect></_>
    <_>
      <rect>
        30 13 5 4</rect></_>
    <_>
      <rect>
        30 13 6 5</rect></_>
    <_>
      <rect>
        30 14 9 4</rect></_>
    <_>
      <rect>
        30 18 6 1</rect></_>
    <_>
      <rect>
        30 22 6 4</rect></_>
    <_>
      <rect>
        31 17 3 2</rect></_>
    <_>
      <rect>
        32 11 5 4</rect></_>
    <_>
      <rect>
        32 14 5 4</rect></_>
    <_>
      <rect>
        32 16 3 2</rect></_>
    <_>
      <rect>
        32 19 3 1</rect></_>
    <_>
      <rect>
        33 12 5 6</rect></_>
    <_>
      <rect>
        33 13 4 3</rect></_>
    <_>
      <rect>
        33 13 4 4</rect></_>
    <_>
      <rect>
        33 13 5 5</rect></_>
    <_>
      <rect>
        33 14 5 3</rect></_>
    <_>
      <rect>
        33 18 7 5</rect></_>
    <_>
      <rect>
        34 10 11 8</rect></_>
    <_>
      <rect>
        34 11 4 4</rect></_>
    <_>
      <rect>
        34 11 5 4</rect></_>
    <_>
      <rect>
        34 13 4 3</rect></_>
    <_>
      <rect>
        34 14 6 3</rect></_>
    <_>
      <rect>
        34 15 3 2</rect></_>
    <_>
      <rect>
        34 16 4 2</rect></_>
    <_>
      <rect>
        34 18 2 2</rect></_>
    <_>
      <rect>
        35 12 4 6</rect></_>
    <_>
      <rect>
        35 13 4 4</rect></_>
    <_>
      <rect>
        35 15 3 3</rect></_>
    <_>
      <rect>
        35 16 2 1</rect></_>
    <_>
      <rect>
        35 17 3 2</rect></_>
    <_>
      <rect>
        35 17 5 3</rect></_>
    <_>
      <rect>
        35 18 2 1</rect></_>
    <_>
      <rect>
        36 9 4 4</rect></_>
    <_>
      <rect>
        36 12 5 4</rect></_>
    <_>
      <rect>
        36 12 7 4</rect></_>
    <_>
      <rect>
        36 21 2 1</rect></_>
    <_>
      <rect>
        37 1 12 11</rect></_>
    <_>
      <rect>
        37 11 6 4</rect></_>
    <_>
      <rect>
        37 17 1 1</rect></_>
    <_>
      <rect>
        37 17 2 2</rect></_>
    <_>
      <rect>
        37 17 3 2</rect></_>
    <_>
      <rect>
        37 18 4 2</rect></_>
    <_>
      <rect>
        37 19 2 1</rect></_>
    <_>
      <rect>
        37 20 5 2</rect></_>
    <_>
      <rect>
        38 2 14 8</rect></_>
    <_>
      <rect>
        38 13 12 6</rect></_>
    <_>
      <rect>
        38 15 2 3</rect></_>
    <_>
      <rect>
        38 15 8 5</rect></_>
    <_>
      <rect>
        38 16 2 1</rect></_>
    <_>
      <rect>
        38 17 1 2</rect></_>
    <_>
      <rect>
        38 17 7 4</rect></_>
    <_>
      <rect>
        38 18 2 2</rect></_>
    <_>
      <rect>
        38 18 3 1</rect></_>
    <_>
      <rect>
        38 18 3 2</rect></_>
    <_>
      <rect>
        38 19 1 1</rect></_>
    <_>
      <rect>
        38 19 3 2</rect></_>
    <_>
      <rect>
        39 6 6 5</rect></_>
    <_>
      <rect>
        39 8 5 8</rect></_>
    <_>
      <rect>
        39 10 9 7</rect></_>
    <_>
      <rect>
        39 12 6 4</rect></_>
    <_>
      <rect>
        39 16 1 2</rect></_>
    <_>
      <rect>
        39 18 1 1</rect></_>
    <_>
      <rect>
        39 18 2 2</rect></_>
    <_>
      <rect>
        39 18 7 4</rect></_>
    <_>
      <rect>
        40 0 9 6</rect></_>
    <_>
      <rect>
        40 14 8 5</rect></_>
    <_>
      <rect>
        40 15 6 4</rect></_>
    <_>
      <rect>
        40 16 2 2</rect></_>
    <_>
      <rect>
        40 18 2 1</rect></_>
    <_>
      <rect>
        40 19 1 1</rect></_>
    <_>
      <rect>
        40 19 6 4</rect></_>
    <_>
      <rect>
        40 20 3 1</rect></_>
    <_>
      <rect>
        40 21 4 5</rect></_>
    <_>
      <rect>
        41 0 6 6</rect></_>
    <_>
      <rect>
        41 15 7 4</rect></_>
    <_>
      <rect>
        41 19 1 1</rect></_>
    <_>
      <rect>
        42 11 10 8</rect></_>
    <_>
      <rect>
        43 19 2 1</rect></_>
    <_>
      <rect>
        44 17 1 1</rect></_>
    <_>
      <rect>
        45 16 3 3</rect></_>
    <_>
      <rect>
        46 5 7 7</rect></_>
    <_>
      <rect>
        46 16 5 4</rect></_>
    <_>
      <rect>
        47 3 6 7</rect></_>
    <_>
      <rect>
        48 10 10 10</rect></_></features></cascade>
</opencv_storage>
