<?xml version="1.0"?>
<opencv_storage>
<stage7>
  <maxWeakCount>8</maxWeakCount>
  <stageThreshold>-6.8896698951721191e-01</stageThreshold>
  <weakClassifiers>
    <_>
      <internalNodes>
        0 -1 178487 1744980572 495551724 147642 42193632 -2112484894
        -1441754967 1952476159 -154875051</internalNodes>
      <leafValues>
        -6.2765955924987793e-01 5.1960784196853638e-01</leafValues></_>
    <_>
      <internalNodes>
        0 -1 156919 1383500367 943214662 -2147429953 -547499955
        295682756 1091219562 -2057301240 -1370111725</internalNodes>
      <leafValues>
        -5.0650447607040405e-01 4.7269359230995178e-01</leafValues></_>
    <_>
      <internalNodes>
        0 -1 48239 286783456 587661738 -2147477292 -744730614
        -2008383357 1264353314 142711695 -516431837</internalNodes>
      <leafValues>
        -6.2728148698806763e-01 3.7569740414619446e-01</leafValues></_>
    <_>
      <internalNodes>
        0 -1 138056 -1073577098 1444119350 1092751635 1460224328
        38668439 -1610071987 -1050180608 1360368403</internalNodes>
      <leafValues>
        -6.2380784749984741e-01 3.8498887419700623e-01</leafValues></_>
    <_>
      <internalNodes>
        0 -1 205224 -1284594825 824433200 419528961 1369505961
        -1467481122 -2000617088 -1725824800 124721390</internalNodes>
      <leafValues>
        -5.8896070718765259e-01 3.9456847310066223e-01</leafValues></_>
    <_>
      <internalNodes>
        0 -1 142533 -90210286 1892929555 1426397695 1846644762 984631436
        354550148 92944744 -808402166</internalNodes>
      <leafValues>
        -5.6366980075836182e-01 4.6701300144195557e-01</leafValues></_>
    <_>
      <internalNodes>
        0 -1 178059 -2088300938 -1050389039 1073823825 1909919939
        101323536 -2007425012 -618213076 -522002346</internalNodes>
      <leafValues>
        -6.1558997631072998e-01 4.2499563097953796e-01</leafValues></_>
    <_>
      <internalNodes>
        0 -1 108570 -716973138 1343635546 -1876621975 1544032476
        -1877921642 136593418 -1056796658 -741061458</internalNodes>
      <leafValues>
        -5.3188204765319824e-01 5.0476002693176270e-01</leafValues></_></weakClassifiers></stage7>
</opencv_storage>
