<?xml version="1.0"?>
<opencv_storage>
<stage1>
  <maxWeakCount>6</maxWeakCount>
  <stageThreshold>-1.3780854940414429e+00</stageThreshold>
  <weakClassifiers>
    <_>
      <internalNodes>
        0 -1 179074 -771645440 -993918848 486606050 -254083071
        -1475682302 -368934838 -1953969531 -20299647</internalNodes>
      <leafValues>
        -6.4301073551177979e-01 6.1585903167724609e-01</leafValues></_>
    <_>
      <internalNodes>
        0 -1 121015 -676688704 -1331500 -822804527 -537007371 -808652861
        -1359097871 -1881804837 -570437773</internalNodes>
      <leafValues>
        -5.4416024684906006e-01 6.2596768140792847e-01</leafValues></_>
    <_>
      <internalNodes>
        0 -1 204082 -183975240 1396704544 17027265 -1656651328
        -2147317526 -116719480 1084785354 488603956</internalNodes>
      <leafValues>
        -7.0193612575531006e-01 5.3341853618621826e-01</leafValues></_>
    <_>
      <internalNodes>
        0 -1 166161 -125269560 -1929379801 285236349 -461291496
        -2013232945 -1945587447 -1190654834 -32829293</internalNodes>
      <leafValues>
        -5.9627372026443481e-01 5.9687763452529907e-01</leafValues></_>
    <_>
      <internalNodes>
        0 -1 190635 -769631307 -37535546 1091637712 -1073626476
        1963534734 -670695404 -511180613 -805306011</internalNodes>
      <leafValues>
        -6.7231273651123047e-01 4.8021575808525085e-01</leafValues></_>
    <_>
      <internalNodes>
        0 -1 118927 268477666 -788462576 -754974144 -107675630
        -2013265720 -1165328384 8929529 2010339611</internalNodes>
      <leafValues>
        -7.1461629867553711e-01 4.6342307329177856e-01</leafValues></_></weakClassifiers></stage1>
</opencv_storage>
