<?xml version="1.0"?>
<opencv_storage>
<stage19>
  <maxWeakCount>8</maxWeakCount>
  <stageThreshold>-7.9620939493179321e-01</stageThreshold>
  <weakClassifiers>
    <_>
      <internalNodes>
        0 -1 174691 559024258 -280555488 420578320 -1038663267 42516746
        -2146954664 545669410 -1362619791</internalNodes>
      <leafValues>
        -6.2732917070388794e-01 4.7104850411415100e-01</leafValues></_>
    <_>
      <internalNodes>
        0 -1 205187 771191581 -1981513718 34144920 1557992469 1628729744
        -928825143 -379057927 21031493</internalNodes>
      <leafValues>
        -6.7721670866012573e-01 3.0076640844345093e-01</leafValues></_>
    <_>
      <internalNodes>
        0 -1 199687 -1031545071 353116763 -1266675707 -2147418109
        -2147262080 1073873027 -1944016384 1179898654</internalNodes>
      <leafValues>
        -5.4671341180801392e-01 3.7762224674224854e-01</leafValues></_>
    <_>
      <internalNodes>
        0 -1 190650 419948379 272105536 -1861203174 -1660600299 782698
        -1416920392 1213685 -56135238</internalNodes>
      <leafValues>
        -4.6545383334159851e-01 4.2023482918739319e-01</leafValues></_>
    <_>
      <internalNodes>
        0 -1 170663 142639227 121831425 1075023892 -1038938055 46137403
        -1878360014 304621631 -792231351</internalNodes>
      <leafValues>
        -5.4715532064437866e-01 4.0818521380424500e-01</leafValues></_>
    <_>
      <internalNodes>
        0 -1 150305 186123952 -1290034224 -1827548847 332759777
        -955235405 -1604837232 -258330979 -1818655165</internalNodes>
      <leafValues>
        -5.6758767366409302e-01 3.6025190353393555e-01</leafValues></_>
    <_>
      <internalNodes>
        0 -1 190508 -791088977 1413619793 538120816 -598392307
        -200767416 1489666058 279150784 -954033312</internalNodes>
      <leafValues>
        -5.5749773979187012e-01 4.0822970867156982e-01</leafValues></_>
    <_>
      <internalNodes>
        0 -1 128337 -1071193916 690848402 4195840 -703491703 -1879046016
        -914193183 671156265 1431576587</internalNodes>
      <leafValues>
        -6.0314130783081055e-01 3.9116194844245911e-01</leafValues></_></weakClassifiers></stage19>
</opencv_storage>
