<?xml version="1.0"?>
<opencv_storage>
<stage6>
  <maxWeakCount>7</maxWeakCount>
  <stageThreshold>-8.6790800094604492e-01</stageThreshold>
  <weakClassifiers>
    <_>
      <internalNodes>
        0 -1 143642 -788213554 1359041536 1635778578 104300566
        -1039097728 -922185727 1969467632 1594562751</internalNodes>
      <leafValues>
        -5.5608594417572021e-01 5.3598642349243164e-01</leafValues></_>
    <_>
      <internalNodes>
        0 -1 2380 -925604402 -665710462 -2025697208 -1137534796
        1124614455 1498611841 -1055768089 -37232057</internalNodes>
      <leafValues>
        -5.7113903760910034e-01 4.5175242424011230e-01</leafValues></_>
    <_>
      <internalNodes>
        0 -1 201266 -149818023 -464375424 16977949 142802955 -1548164456
        11161736 -2146846691 1093134335</internalNodes>
      <leafValues>
        -5.5779117345809937e-01 4.6194422245025635e-01</leafValues></_>
    <_>
      <internalNodes>
        0 -1 137348 -1003164768 1401110596 -2130685933 1074840032
        -2117553236 -1457807328 -1065254502 -771893165</internalNodes>
      <leafValues>
        -5.4206794500350952e-01 4.9244964122772217e-01</leafValues></_>
    <_>
      <internalNodes>
        0 -1 201737 583471659 16842884 -1342177260 1347764377 826798320
        -904167415 -2013230439 -1065235127</internalNodes>
      <leafValues>
        -6.2370020151138306e-01 4.4222995638847351e-01</leafValues></_>
    <_>
      <internalNodes>
        0 -1 143481 -1006164785 -1987030847 136037 -721059728 1518911503
        255623332 948474451 1391692803</internalNodes>
      <leafValues>
        -6.2344753742218018e-01 4.2555862665176392e-01</leafValues></_>
    <_>
      <internalNodes>
        0 -1 58637 -528174866 -696201067 -1988001403 -171932926
        810075115 1342242817 554288026 -976240341</internalNodes>
      <leafValues>
        -5.0009143352508545e-01 5.4412049055099487e-01</leafValues></_></weakClassifiers></stage6>
</opencv_storage>
