<?xml version="1.0"?>
<opencv_storage>
<stage3>
  <maxWeakCount>6</maxWeakCount>
  <stageThreshold>-7.1072304248809814e-01</stageThreshold>
  <weakClassifiers>
    <_>
      <internalNodes>
        0 -1 201730 488333085 226590721 34046277 -793411433 882051137
        -919924728 -213572960 -1073715595</internalNodes>
      <leafValues>
        -6.3679248094558716e-01 5.6972789764404297e-01</leafValues></_>
    <_>
      <internalNodes>
        0 -1 337 -147459600 -1811656304 1073905808 1083527288
        -2146335534 1108410501 -918451037 1079209629</internalNodes>
      <leafValues>
        -6.5476626157760620e-01 4.3732494115829468e-01</leafValues></_>
    <_>
      <internalNodes>
        0 -1 170037 142758663 -1845427164 1745413342 -981466863
        -1325260136 1388380217 1880121383 -387674299</internalNodes>
      <leafValues>
        -6.5609902143478394e-01 4.7412422299385071e-01</leafValues></_>
    <_>
      <internalNodes>
        0 -1 190732 -1071237351 -393735552 -1877864432 -725544884
        -1744281566 -783679232 -1182037309 -1817444208</internalNodes>
      <leafValues>
        -7.3376148939132690e-01 3.8330605626106262e-01</leafValues></_>
    <_>
      <internalNodes>
        0 -1 193813 -615705800 1497956621 168063 1531904156 1535675352
        726257798 50372902 1467957316</internalNodes>
      <leafValues>
        -7.7601051330566406e-01 3.5143360495567322e-01</leafValues></_>
    <_>
      <internalNodes>
        0 -1 195855 -976234131 1360334853 1074842127 1099105321
        -784152559 8390722 -2012634470 -2146197413</internalNodes>
      <leafValues>
        -5.6223255395889282e-01 5.2439224720001221e-01</leafValues></_></weakClassifiers></stage3>
</opencv_storage>
