<?xml version="1.0"?>
<opencv_storage>
<stage11>
  <maxWeakCount>10</maxWeakCount>
  <stageThreshold>-1.2264763116836548e+00</stageThreshold>
  <weakClassifiers>
    <_>
      <internalNodes>
        0 -1 138575 -12309 -773554426 -1507671970 -822067204 -944101
        -524308 -92348589 -136053144</internalNodes>
      <leafValues>
        -4.2284569144248962e-01 5.5495005846023560e-01</leafValues></_>
    <_>
      <internalNodes>
        0 -1 166154 -2069773911 -301788924 -2142224173 -1067466557
        8554929 -359100416 1471848672 -32353674</internalNodes>
      <leafValues>
        -5.0579613447189331e-01 4.2191883921623230e-01</leafValues></_>
    <_>
      <internalNodes>
        0 -1 126368 -1428110703 -1589084080 207622555 -45227758
        -938835537 -312753982 -1966110049 -678377549</internalNodes>
      <leafValues>
        -4.6886005997657776e-01 4.6820876002311707e-01</leafValues></_>
    <_>
      <internalNodes>
        0 -1 204985 406897071 -937279328 -1073478651 -599670711
        -1876275682 -1037500264 1208092290 -147168743</internalNodes>
      <leafValues>
        -5.2839648723602295e-01 4.2260405421257019e-01</leafValues></_>
    <_>
      <internalNodes>
        0 -1 221292 -2121575614 -1047461824 1343438865 -976813671
        -2113398684 -66449386 1770031828 -1148443922</internalNodes>
      <leafValues>
        -4.8038050532341003e-01 5.0067234039306641e-01</leafValues></_>
    <_>
      <internalNodes>
        0 -1 206289 1495093260 1380057361 33554707 1079837 -393879254
        1543670424 -2140604197 1241745551</internalNodes>
      <leafValues>
        -5.8965373039245605e-01 4.2586299777030945e-01</leafValues></_>
    <_>
      <internalNodes>
        0 -1 208216 1431795543 -589472299 -1359578640 1238719857
        -189348210 -564269106 1184272028 -685802418</internalNodes>
      <leafValues>
        -4.1958141326904297e-01 5.7522082328796387e-01</leafValues></_>
    <_>
      <internalNodes>
        0 -1 147558 -1069039401 -1056550532 285364495 1943865369
        -2138570596 -268435319 -1316487151 -288298888</internalNodes>
      <leafValues>
        -5.4307335615158081e-01 4.7257846593856812e-01</leafValues></_>
    <_>
      <internalNodes>
        0 -1 194728 -778464813 -602865664 1888550933 269746192
        1763780885 -937916280 -2079740410 -795078548</internalNodes>
      <leafValues>
        -6.1361241340637207e-01 4.3157520890235901e-01</leafValues></_>
    <_>
      <internalNodes>
        0 -1 46324 -2132690682 337708289 423625045 -1945042944
        1381026489 276824224 -2146396069 1409910914</internalNodes>
      <leafValues>
        -6.8445789813995361e-01 3.7173953652381897e-01</leafValues></_></weakClassifiers></stage11>
</opencv_storage>
