<?xml version="1.0"?>
<opencv_storage>
<stage15>
  <maxWeakCount>9</maxWeakCount>
  <stageThreshold>-9.6697574853897095e-01</stageThreshold>
  <weakClassifiers>
    <_>
      <internalNodes>
        0 -1 186254 -2059402682 428245072 1091649566 -1066962534
        1979716360 587759642 1635914248 -163408574</internalNodes>
      <leafValues>
        -6.2300318479537964e-01 4.6231546998023987e-01</leafValues></_>
    <_>
      <internalNodes>
        0 -1 182365 1901580984 1609744 353206405 17019096 845551966
        273285312 -1237014581 -121290145</internalNodes>
      <leafValues>
        -4.3292510509490967e-01 4.4042795896530151e-01</leafValues></_>
    <_>
      <internalNodes>
        0 -1 197318 -917600964 -917700600 84148239 1377988610
        -1954511916 134906017 671203407 554107408</internalNodes>
      <leafValues>
        -6.3776659965515137e-01 3.6301705241203308e-01</leafValues></_>
    <_>
      <internalNodes>
        0 -1 208753 806588964 8400897 -1190849274 1187053888 -1879011124
        -1147494389 -1070477964 1788594473</internalNodes>
      <leafValues>
        -6.1852848529815674e-01 2.9944869875907898e-01</leafValues></_>
    <_>
      <internalNodes>
        0 -1 208650 -1207491940 -1471037435 -2012987374 -589328349
        -402120508 -1979674240 -1056952190 -206665576</internalNodes>
      <leafValues>
        -5.0211369991302490e-01 4.2814868688583374e-01</leafValues></_>
    <_>
      <internalNodes>
        0 -1 161874 9536193 -922367616 102717 -1027112508 17322408
        -930807808 402784906 -91729701</internalNodes>
      <leafValues>
        -5.7659089565277100e-01 4.2452108860015869e-01</leafValues></_>
    <_>
      <internalNodes>
        0 -1 186402 -1786130201 -736788197 16847334 -2029517792
        1611180761 19595296 815860386 -1283095835</internalNodes>
      <leafValues>
        -4.9255135655403137e-01 4.7652596235275269e-01</leafValues></_>
    <_>
      <internalNodes>
        0 -1 201736 -1853679822 -2076114680 -1073738865 -1877146624
        -133692874 966263688 151734702 1476532848</internalNodes>
      <leafValues>
        -5.6506437063217163e-01 4.1930311918258667e-01</leafValues></_>
    <_>
      <internalNodes>
        0 -1 124204 -1074143233 -76636161 -285213592 961117692
        1040109360 -136872124 -1265633760 -77374397</internalNodes>
      <leafValues>
        -4.2106762528419495e-01 5.6764781475067139e-01</leafValues></_></weakClassifiers></stage15>
</opencv_storage>
