<?xml version="1.0"?>
<opencv_storage>
<stage12>
  <maxWeakCount>8</maxWeakCount>
  <stageThreshold>-7.1957981586456299e-01</stageThreshold>
  <weakClassifiers>
    <_>
      <internalNodes>
        0 -1 178725 -1060066042 -2100785140 -1073707584 -492986340
        8552714 -66584295 -2134873536 -637389868</internalNodes>
      <leafValues>
        -7.5091576576232910e-01 4.5591560006141663e-01</leafValues></_>
    <_>
      <internalNodes>
        0 -1 133105 -498022283 1272517206 -2063478249 -711236463
        -1097203515 -444577144 -1197223643 274109731</internalNodes>
      <leafValues>
        -5.5294525623321533e-01 3.7302917242050171e-01</leafValues></_>
    <_>
      <internalNodes>
        0 -1 208688 -1649105578 927671552 285217154 1196982689 269519512
        8487314 272782736 -1660446305</internalNodes>
      <leafValues>
        -4.9163994193077087e-01 4.3966129422187805e-01</leafValues></_>
    <_>
      <internalNodes>
        0 -1 201625 -1857732363 -1043625917 -2147372213 -464019383
        537092319 -2105399135 1284196360 -3433300</internalNodes>
      <leafValues>
        -4.9131351709365845e-01 4.3651226162910461e-01</leafValues></_>
    <_>
      <internalNodes>
        0 -1 198104 285739272 185663489 1378353304 -921632099 1940566261
        -373816831 629795261 -114890082</internalNodes>
      <leafValues>
        -4.9242097139358521e-01 4.8941472172737122e-01</leafValues></_>
    <_>
      <internalNodes>
        0 -1 70588 -732660242 1845891140 -787267582 -212823868
        1116773090 -1954299776 -32043007 886857735</internalNodes>
      <leafValues>
        -6.8348956108093262e-01 3.5040986537933350e-01</leafValues></_>
    <_>
      <internalNodes>
        0 -1 152960 -800040706 402685960 -2080271879 411271761 295490
        -2130694142 -2147300818 314921823</internalNodes>
      <leafValues>
        -6.3014036417007446e-01 3.7424236536026001e-01</leafValues></_>
    <_>
      <internalNodes>
        0 -1 201520 -2108651311 -868220928 -1073459131 1242306636
        26407088 -224212448 1073774768 -1792870375</internalNodes>
      <leafValues>
        -5.9794902801513672e-01 4.0370213985443115e-01</leafValues></_></weakClassifiers></stage12>
</opencv_storage>
