<?xml version="1.0"?>
<opencv_storage>
<stage10>
  <maxWeakCount>8</maxWeakCount>
  <stageThreshold>-5.8572041988372803e-01</stageThreshold>
  <weakClassifiers>
    <_>
      <internalNodes>
        0 -1 201820 1898649607 1394212995 -1878716158 1351684203
        1092157441 889258386 -1970576831 -1405601368</internalNodes>
      <leafValues>
        -5.6060606241226196e-01 5.1661127805709839e-01</leafValues></_>
    <_>
      <internalNodes>
        0 -1 157186 -1901076485 -1342277892 1342173119 1392467455
        -826890499 1331691447 -671726201 -623765661</internalNodes>
      <leafValues>
        -4.5659279823303223e-01 5.2231156826019287e-01</leafValues></_>
    <_>
      <internalNodes>
        0 -1 186625 -955983124 -346945388 137360 -925646516 536890175
        159645851 -1504878351 -429708274</internalNodes>
      <leafValues>
        -6.5919566154479980e-01 3.7942644953727722e-01</leafValues></_>
    <_>
      <internalNodes>
        0 -1 211691 1908658770 -1000832748 202753 1184325779 -1448352244
        1184039522 -1971191658 -586209905</internalNodes>
      <leafValues>
        -4.7951367497444153e-01 5.0685054063796997e-01</leafValues></_>
    <_>
      <internalNodes>
        0 -1 208373 -1409165321 -1590996584 34082971 -897021818
        -2147360358 -1685470590 1091092872 -349544127</internalNodes>
      <leafValues>
        -5.2997612953186035e-01 4.7057369351387024e-01</leafValues></_>
    <_>
      <internalNodes>
        0 -1 185912 994701782 -687503102 805373961 -587103808 -901021992
        -2138341364 579526977 1163046680</internalNodes>
      <leafValues>
        -6.3802576065063477e-01 3.8906595110893250e-01</leafValues></_>
    <_>
      <internalNodes>
        0 -1 193383 -1862061840 365756490 352322962 700792989
        -1987523455 -2071953279 948114077 810117192</internalNodes>
      <leafValues>
        -7.3805123567581177e-01 3.2174181938171387e-01</leafValues></_>
    <_>
      <internalNodes>
        0 -1 143172 1108513751 -962260777 151306563 -607985572
        -1341996105 -1994915710 -2147253963 1364042027</internalNodes>
      <leafValues>
        -5.4937064647674561e-01 4.2992123961448669e-01</leafValues></_></weakClassifiers></stage10>
</opencv_storage>
