<?xml version="1.0"?>
<opencv_storage>
<stage14>
  <maxWeakCount>9</maxWeakCount>
  <stageThreshold>-1.0176103115081787e+00</stageThreshold>
  <weakClassifiers>
    <_>
      <internalNodes>
        0 -1 143716 -285311937 -353435713 1342629631 1929297887
        -25272464 671088511 -153684621 1433895731</internalNodes>
      <leafValues>
        -4.4298246502876282e-01 5.2622377872467041e-01</leafValues></_>
    <_>
      <internalNodes>
        0 -1 205179 -1576437699 -791271178 -788299690 -225877801
        -2147477501 -1739915231 -1610573791 -100601807</internalNodes>
      <leafValues>
        -5.5428260564804077e-01 3.6242598295211792e-01</leafValues></_>
    <_>
      <internalNodes>
        0 -1 193795 1352320648 -519595963 -2130501134 -1589002032
        143778760 172195985 118259802 -1692171962</internalNodes>
      <leafValues>
        -5.2727353572845459e-01 3.7929508090019226e-01</leafValues></_>
    <_>
      <internalNodes>
        0 -1 142155 -2090997710 1468763928 285415439 1409876224
        -1023168375 -1727586298 -1172690033 1217102017</internalNodes>
      <leafValues>
        -4.6555134654045105e-01 4.6186152100563049e-01</leafValues></_>
    <_>
      <internalNodes>
        0 -1 129502 420704767 1011942547 -1609546530 -179382568
        1376256532 -1610612600 1611739804 -1434367997</internalNodes>
      <leafValues>
        -4.8698142170906067e-01 4.3941718339920044e-01</leafValues></_>
    <_>
      <internalNodes>
        0 -1 198303 1343131702 1964507204 16842802 -685957034 415836827
        948437194 -2147449455 -1895151218</internalNodes>
      <leafValues>
        -5.6591397523880005e-01 4.1661483049392700e-01</leafValues></_>
    <_>
      <internalNodes>
        0 -1 208841 11989823 21397570 -2113847101 1397786244 -1606219483
        -1031667694 -1047837523 -1651557800</internalNodes>
      <leafValues>
        -4.3881058692932129e-01 5.2999156713485718e-01</leafValues></_>
    <_>
      <internalNodes>
        0 -1 122951 -1004791754 1431539934 331464960 -586909540
        -805273329 411047956 1075872130 1531116176</internalNodes>
      <leafValues>
        -6.5468037128448486e-01 3.6151620745658875e-01</leafValues></_>
    <_>
      <internalNodes>
        0 -1 186497 -2123235048 -2084143036 -787279846 -1068105127
        1354778849 -1744797661 -725595997 -221500400</internalNodes>
      <leafValues>
        -7.4688333272933960e-01 2.9322999715805054e-01</leafValues></_></weakClassifiers></stage14>
</opencv_storage>
