<?xml version="1.0"?>
<opencv_storage>
<stage2>
  <maxWeakCount>7</maxWeakCount>
  <stageThreshold>-8.0091893672943115e-01</stageThreshold>
  <weakClassifiers>
    <_>
      <internalNodes>
        0 -1 157339 -728267062 -997982076 -1877978826 1075890312
        1074249922 -1442119616 -1584809246 1661139539</internalNodes>
      <leafValues>
        -6.5795725584030151e-01 5.7421541213989258e-01</leafValues></_>
    <_>
      <internalNodes>
        0 -1 185994 -238401824 1402048512 269500434 -719092637
        1501610632 1368076288 1073743736 -166248378</internalNodes>
      <leafValues>
        -7.4389892816543579e-01 4.1679671406745911e-01</leafValues></_>
    <_>
      <internalNodes>
        0 -1 204381 824178903 -753840128 536969859 -1056960509
        -402488946 -641630199 1510170792 1078411471</internalNodes>
      <leafValues>
        -4.9944588541984558e-01 6.1085480451583862e-01</leafValues></_>
    <_>
      <internalNodes>
        0 -1 39971 -1595489058 -611630906 -2142764930 -50212519 951771
        1354956928 -2113873889 700940499</internalNodes>
      <leafValues>
        -5.7546252012252808e-01 5.5897051095962524e-01</leafValues></_>
    <_>
      <internalNodes>
        0 -1 157195 -531373874 -2138685300 -250491635 2015264779
        -2111667576 -2004221916 -242712438 -85726383</internalNodes>
      <leafValues>
        -6.6009932756423950e-01 4.8010262846946716e-01</leafValues></_>
    <_>
      <internalNodes>
        0 -1 208303 -138742341 -713293996 -34078985 -771883521
        -2013626788 1566398454 -611404362 -784081569</internalNodes>
      <leafValues>
        -5.1864361763000488e-01 6.1412686109542847e-01</leafValues></_>
    <_>
      <internalNodes>
        0 -1 228504 -640765888 269111318 1118466 411500803 -1971060093
        -2138865662 680003788 1476846091</internalNodes>
      <leafValues>
        -5.5660969018936157e-01 5.6394571065902710e-01</leafValues></_></weakClassifiers></stage2>
</opencv_storage>
