<?xml version="1.0"?>
<opencv_storage>
<stage5>
  <maxWeakCount>6</maxWeakCount>
  <stageThreshold>-1.3207739591598511e+00</stageThreshold>
  <weakClassifiers>
    <_>
      <internalNodes>
        0 -1 198187 1930903651 -2143289133 553697939 269811973 445661714
        831127563 -1342115775 -2141708144</internalNodes>
      <leafValues>
        -7.4213838577270508e-01 4.9609982967376709e-01</leafValues></_>
    <_>
      <internalNodes>
        0 -1 182354 -842847146 -654204274 2179103 -519847737 319496360
        -1899954141 1761608108 -435895244</internalNodes>
      <leafValues>
        -6.2929087877273560e-01 3.9593979716300964e-01</leafValues></_>
    <_>
      <internalNodes>
        0 -1 182231 234902351 -2130460512 18055507 1361675776
        -1182654302 -939294080 -1303070561 -595539133</internalNodes>
      <leafValues>
        -5.0718432664871216e-01 5.4667651653289795e-01</leafValues></_>
    <_>
      <internalNodes>
        0 -1 123135 -629157917 1106247653 -1702887579 1943928769 -4152
        -1879244809 -8978593 -673841165</internalNodes>
      <leafValues>
        -4.6964806318283081e-01 6.1882358789443970e-01</leafValues></_>
    <_>
      <internalNodes>
        0 -1 76903 -748257274 677052880 1351746897 2110984349 -939454330
        -536764410 1216383307 -278805561</internalNodes>
      <leafValues>
        -5.8204597234725952e-01 4.9922895431518555e-01</leafValues></_>
    <_>
      <internalNodes>
        0 -1 160540 -1931206031 277873687 17429 -742789108 -2142595816
        -2130704224 -393981311 -876187536</internalNodes>
      <leafValues>
        -7.5068277120590210e-01 3.7129545211791992e-01</leafValues></_></weakClassifiers></stage5>
</opencv_storage>
