<?xml version="1.0"?>
<opencv_storage>
<stage4>
  <maxWeakCount>7</maxWeakCount>
  <stageThreshold>-9.5893293619155884e-01</stageThreshold>
  <weakClassifiers>
    <_>
      <internalNodes>
        0 -1 165615 873333488 1352196306 273749267 -226127732
        -2013154960 -607649632 -1719372496 -73368496</internalNodes>
      <leafValues>
        -7.6947039365768433e-01 5.0586396455764771e-01</leafValues></_>
    <_>
      <internalNodes>
        0 -1 138383 -958418057 -1475116909 -1073001795 -953843583
        -527846425 402653313 -998014672 1191653635</internalNodes>
      <leafValues>
        -5.8580493927001953e-01 4.6280640363693237e-01</leafValues></_>
    <_>
      <internalNodes>
        0 -1 201410 989051645 -1974877631 1073844377 -2138611615
        145031402 -2008875006 -1475852261 -261208731</internalNodes>
      <leafValues>
        -5.4426354169845581e-01 5.2181935310363770e-01</leafValues></_>
    <_>
      <internalNodes>
        0 -1 143754 -744992302 -788492264 1346502744 1571029074
        -1048539088 -1065189247 -1171703396 2021549230</internalNodes>
      <leafValues>
        -7.0775771141052246e-01 3.6985063552856445e-01</leafValues></_>
    <_>
      <internalNodes>
        0 -1 133113 -454370765 -4436 -1066624261 -379257117 -69425
        -293601409 -1015686182 -975962761</internalNodes>
      <leafValues>
        -4.6364763379096985e-01 6.2976545095443726e-01</leafValues></_>
    <_>
      <internalNodes>
        0 -1 201460 1914402807 -686585984 -2113290091 990052361
        672458624 -1736343540 -1073512210 -1810300859</internalNodes>
      <leafValues>
        -5.0936198234558105e-01 5.7213604450225830e-01</leafValues></_>
    <_>
      <internalNodes>
        0 -1 93762 -1434145790 1478721556 1091712025 -1190031354
        -2147300469 1015037969 -796278141 -953818865</internalNodes>
      <leafValues>
        -5.9825950860977173e-01 5.0223618745803833e-01</leafValues></_></weakClassifiers></stage4>
</opencv_storage>
