<?xml version="1.0"?>
<opencv_storage>
<stage16>
  <maxWeakCount>9</maxWeakCount>
  <stageThreshold>-5.3910291194915771e-01</stageThreshold>
  <weakClassifiers>
    <_>
      <internalNodes>
        0 -1 197992 1560051639 1837838324 -1 -654311428 2139171129
        -32897 -131532 -1052083147</internalNodes>
      <leafValues>
        -4.6516853570938110e-01 5.2554112672805786e-01</leafValues></_>
    <_>
      <internalNodes>
        0 -1 201835 -2088697073 8487050 1131550 1480130875 -1070746438
        -106366951 -1182274820 -194657692</internalNodes>
      <leafValues>
        -4.4272929430007935e-01 4.3907311558723450e-01</leafValues></_>
    <_>
      <internalNodes>
        0 -1 163953 -2011549696 -800620016 -2138553961 -745164459
        -367885394 -57360239 1242351839 -1090381041</internalNodes>
      <leafValues>
        -5.0331944227218628e-01 4.1275867819786072e-01</leafValues></_>
    <_>
      <internalNodes>
        0 -1 224166 -1884629693 644538317 -67174409 1132420805
        -962799908 1190526837 -197745195 -1561150113</internalNodes>
      <leafValues>
        -3.8987180590629578e-01 5.4878294467926025e-01</leafValues></_>
    <_>
      <internalNodes>
        0 -1 151704 -627636202 429773458 1091043726 -674430575
        -521469805 152764625 -502358005 -2033737448</internalNodes>
      <leafValues>
        -5.2158242464065552e-01 4.0850475430488586e-01</leafValues></_>
    <_>
      <internalNodes>
        0 -1 143946 -403327333 -5313042 -554436749 -601620939
        -1217152684 -1366229894 -205138444 -1421828752</internalNodes>
      <leafValues>
        -4.5681861042976379e-01 5.0404900312423706e-01</leafValues></_>
    <_>
      <internalNodes>
        0 -1 171077 1525551606 536621054 1711025985 -77251090 -159497797
        2002730866 -46553859 -31851297</internalNodes>
      <leafValues>
        -3.6602020263671875e-01 6.2705326080322266e-01</leafValues></_>
    <_>
      <internalNodes>
        0 -1 212030 -1083646470 -295010598 -33620242 -654578433
        2002025716 -553812139 1953689191 -549217547</internalNodes>
      <leafValues>
        -4.3703490495681763e-01 5.4733586311340332e-01</leafValues></_>
    <_>
      <internalNodes>
        0 -1 163569 572663136 -1862135801 1410421023 -1626012461
        411053226 -383745736 147456239 554463302</internalNodes>
      <leafValues>
        -6.8380260467529297e-01 3.6804163455963135e-01</leafValues></_></weakClassifiers></stage16>
</opencv_storage>
